TTT -0.0066860365 0.07107315 0.13287911 0.12997937 -0.118973374 -0.14559531 0.22048184 0.25815868 -0.15444148 -0.17506479 -0.035123605 -0.41434294 0.2572264 0.21054693 -0.079657555 0.25154588 0.18871565 0.04585023 -0.26317632 -0.42553163 0.117243424 0.24417633 0.25306162 -0.016646843 -0.0093630925 0.2114391 -0.09947356 0.24867214 -0.0008757382 -0.018172126 -0.040497992 -0.10771523 0.1163359 -0.11675639 -0.10539395 0.0015446921 0.3299498 0.009978459 -0.04798193 0.06931402 0.2906246 -0.08720202 -0.03580422 0.12136795 0.22022016 -0.2597398 -0.107230626 -0.106188 0.19348355 0.16488151
TTC -0.07136066 0.19962211 0.091960184 0.22662663 -0.05103435 -0.13365614 0.3144149 0.25572833 -0.18496278 -0.042949762 0.013998893 -0.45387882 0.374571 0.22028661 -0.045107618 0.2951777 0.3193386 -0.07577804 -0.25347337 -0.48785937 0.1852495 0.19358796 0.33389416 -0.1469607 -0.059442222 0.16083212 -0.17482947 0.3974634 0.06583068 0.027269587 0.06378381 -0.14197277 0.21947218 -0.09597693 -0.16706322 0.0728088 0.3895356 0.15941115 -0.10038453 0.22430924 0.39626947 -0.07844059 -0.021810781 0.14844075 0.32967883 -0.3280335 -0.12925091 -0.20668244 0.1208193 0.2402599
GGG -0.3029712 0.26514205 -0.116650954 0.39529926 0.17826678 -0.05776897 0.3249622 0.2558434 -0.23286673 0.048784908 -0.006012466 -0.5061034 0.29676783 0.266411 0.017344486 0.24419387 0.61826044 -0.06314806 -0.16473176 -0.5098932 0.27906206 0.020052051 0.44389346 -0.28493664 -0.014860415 0.032047432 -0.48935777 0.484509 -0.06237841 0.26320273 0.34815952 -0.25616688 0.26101983 -0.15254396 -0.26500562 0.17193457 0.26682082 0.6159635 0.03119359 0.32391724 0.5258892 -0.13244799 -0.22457403 0.1817914 0.23030765 -0.17136946 -0.066146545 -0.30974868 0.10656492 0.25579137
CTG 0.004052153 0.12337776 0.083866 0.27356708 -0.08109791 -0.049125966 0.32612294 0.3292812 -0.15597564 -0.09218261 -0.076862715 -0.4888435 0.3826753 0.28519422 -0.056862205 0.30345166 0.35439053 -0.07967376 -0.22542469 -0.46200705 0.13841526 0.16066922 0.33688477 -0.07640787 -0.031426683 0.17388506 -0.23735149 0.34782854 0.07727882 0.08258769 0.01088662 -0.16741742 0.12294671 -0.13699362 -0.15393613 0.059709474 0.3090788 0.13698542 0.008471825 0.104538314 0.43223786 -0.12706433 -0.010166922 0.1849137 0.22372213 -0.35327366 -0.065860316 -0.20836824 0.16628885 0.2520036
TGG -0.19312924 0.13658023 -0.05725722 0.26213646 0.06541416 -0.05508062 0.25000364 0.26159605 -0.24453372 -0.03833163 -0.10526947 -0.51413786 0.33282587 0.2754692 0.003505969 0.26384252 0.45408568 0.0425982 -0.21685427 -0.50572807 0.18246953 0.12700711 0.34870967 -0.18165737 0.026575774 0.12901057 -0.3116423 0.38696095 -0.074480645 0.16848801 0.17671528 -0.2110087 0.13912489 -0.11249213 -0.24107988 0.10310092 0.2715292 0.3769948 0.0150946975 0.17374031 0.47489157 -0.11632339 -0.12712869 0.20056267 0.22957735 -0.21503666 -0.069733396 -0.24852599 0.18203324 0.21557938
TCT 0.049558725 0.09761961 0.13853703 0.15264143 -0.16357063 -0.13068557 0.24144949 0.28078333 -0.15070686 -0.19681038 -0.05300095 -0.49905995 0.40452543 0.27662423 -0.1017525 0.34031862 0.25916246 -0.0070762136 -0.2835614 -0.43940586 0.12265243 0.26960292 0.2687302 -0.012341398 -0.040319297 0.2876422 -0.0986398 0.3067163 0.06837386 0.032902684 -0.033877637 -0.16390249 0.059973657 -0.12538612 -0.12116576 0.0036787286 0.3439977 0.0075283526 -0.031167597 0.09117439 0.3782198 -0.101883106 0.028190913 0.16267543 0.24493255 -0.36164695 -0.07945285 -0.16004133 0.24556524 0.18081509
CCC 0.03623509 0.349219 0.12910438 0.39437824 -0.09544739 -0.031073894 0.43829298 0.29188988 -0.052678984 -0.050909813 0.17668116 -0.36060953 0.63101184 0.24211992 -0.13093537 0.271241 0.43983588 -0.38052756 -0.3045857 -0.42927685 0.19623215 0.11921854 0.4016292 -0.09134505 -0.17694712 0.13373792 -0.21448764 0.53442395 0.20420216 0.13280794 0.08012881 -0.22711977 0.22479777 -0.18066433 -0.15254211 0.16247822 0.35842052 0.11492636 -0.17225333 0.28338444 0.36489052 -0.0036814837 0.056985 0.1596373 0.38925004 -0.4759233 -0.08903084 -0.23076214 0.050861638 0.27887857
ATT 0.019429365 0.08638158 0.091740176 0.08796441 -0.11947723 -0.13088562 0.23864487 0.33496177 -0.1365273 -0.16385946 -0.07174406 -0.46660355 0.32985067 0.24809165 -0.05454553 0.26089048 0.22799128 0.028998837 -0.23356985 -0.4883875 0.13120537 0.19391657 0.25187227 -0.024190225 -0.03315741 0.19718054 -0.15908848 0.30273554 0.029266944 0.037201658 -0.017861333 -0.108616345 0.10672155 -0.08610673 -0.1310261 0.013172527 0.39147153 0.11848237 -0.039318834 0.06661575 0.36042452 -0.12792984 -0.026889186 0.13833547 0.22289613 -0.32717845 -0.06387416 -0.1772608 0.1757526 0.18428023
GGT -0.2065723 0.16937031 -0.04819766 0.2818013 0.043159 -0.05935595 0.32137278 0.22745517 -0.22396088 -0.0289726 -0.06626636 -0.47594017 0.30707854 0.27026898 -0.047287766 0.23302585 0.42370975 0.034666028 -0.17158157 -0.52024204 0.2299924 0.10206912 0.40124094 -0.13699925 -0.041152705 0.10954907 -0.314982 0.40286684 -0.06720904 0.1595971 0.16237515 -0.18604426 0.18561193 -0.1722248 -0.18847775 0.112658545 0.26038662 0.39953852 0.0019298572 0.20267728 0.5180768 -0.16205114 -0.13348249 0.2339333 0.2987205 -0.23769794 -0.081646 -0.25450063 0.17849013 0.1783299
TCC 0.060200363 0.19803302 0.16854897 0.20997651 -0.1584227 -0.12382016 0.25279146 0.22655599 -0.14070836 -0.14839944 0.06096711 -0.440772 0.48281834 0.2567386 -0.09868086 0.30172652 0.35424984 -0.1247669 -0.3094273 -0.4189669 0.11741134 0.21988118 0.27729627 -0.02369716 -0.076704234 0.25238943 -0.147697 0.434717 0.16218475 0.022663591 -0.012274461 -0.18906152 0.1733695 -0.1599922 -0.17712176 0.03207551 0.3995394 0.071560614 -0.15867665 0.15292035 0.37654558 -0.071230285 0.06347259 0.131759 0.3116126 -0.44445613 -0.07313826 -0.1614308 0.120906696 0.23440672
CAG -0.05283695 0.13745415 0.08707404 0.1779226 -0.16496533 -0.056369342 0.31575015 0.34509748 -0.15579112 -0.15618442 -0.103453174 -0.5110642 0.3473784 0.26283404 -0.10226904 0.25176683 0.24544181 -0.07041517 -0.22269562 -0.4592214 0.09437024 0.19898465 0.30611044 -0.011423987 -0.039092846 0.22701722 -0.13972893 0.31434613 0.07202115 0.10536024 0.005481645 -0.20895751 0.06875725 -0.12288226 -0.12916997 0.10008851 0.36894774 0.1431243 0.012291295 0.089108266 0.49905512 -0.15026855 -0.076890856 0.18165179 0.16493867 -0.4070325 -0.052069984 -0.15172856 0.20428398 0.23483214
GTT -0.11609882 0.10442558 0.02745914 0.25230113 -0.07009166 -0.106755435 0.28487647 0.18314467 -0.24499573 -0.100289285 0.004484068 -0.4775078 0.35608274 0.24364682 -0.004351062 0.28888318 0.39389893 -0.01959934 -0.23069207 -0.52531844 0.21400024 0.17157322 0.36409035 -0.11875785 -0.03251324 0.1669851 -0.30199277 0.39475542 -0.0016453349 0.13673694 0.1366993 -0.17468435 0.18548962 -0.15487827 -0.21609032 0.05467372 0.29353255 0.347748 -0.07577276 0.19183569 0.46868464 -0.07061125 -0.08719244 0.13918002 0.30527025 -0.24629854 -0.12721601 -0.24945386 0.15415034 0.19467025
CTT 0.066565864 0.09319448 0.13732576 0.16914673 -0.13044092 -0.102674566 0.26580468 0.2973297 -0.14185824 -0.17070247 -0.03564491 -0.45374957 0.359338 0.27820262 -0.09294052 0.27656186 0.2664605 -0.011345868 -0.2578542 -0.47478396 0.115387835 0.20762151 0.28444967 -0.02077505 -0.041450802 0.22316249 -0.14232327 0.28430328 0.06840585 0.028141668 -0.015442145 -0.112153225 0.093094684 -0.12172223 -0.13217264 0.007772524 0.32064047 0.022730999 -0.0586226 0.06261514 0.37869346 -0.12147537 0.03093417 0.14311893 0.23780708 -0.33064544 -0.10199077 -0.18712813 0.17465915 0.19691215
AAA 0.052531254 0.0696622 0.13397697 0.14666274 -0.16809826 -0.1202658 0.21578385 0.29580063 -0.119280286 -0.15454756 -0.07373788 -0.45751676 0.3407468 0.25966275 -0.108644 0.28198627 0.14006957 -0.06828083 -0.22739509 -0.4212191 0.08041676 0.22549063 0.20530474 -0.013017509 -0.0017620868 0.21618901 -0.0666022 0.26052728 0.08330917 0.056200378 0.00060512475 -0.14599246 0.03463335 -0.06969094 -0.0925818 0.006649517 0.35391158 -0.0035584026 -0.026183115 0.104659975 0.3520919 -0.12649201 -0.029020479 0.15661807 0.16185777 -0.37358966 -0.023701238 -0.17188792 0.18816122 0.20204869
CCT 0.081328824 0.19156696 0.17351483 0.28765008 -0.144725 -0.091120295 0.33947378 0.2840705 -0.09753695 -0.15642215 0.018797886 -0.44851375 0.4842574 0.26462305 -0.110044494 0.3225723 0.3011139 -0.16804826 -0.28798983 -0.4604884 0.14901285 0.24267575 0.30575815 -0.07753008 -0.104584545 0.2287772 -0.14384978 0.38059485 0.107116796 0.08893039 -0.017584732 -0.15812382 0.122810446 -0.15540324 -0.12616836 0.0698956 0.33756563 0.031022873 -0.11125558 0.18228409 0.38463154 -0.06849465 0.010357906 0.17917562 0.31240308 -0.41794455 -0.12600489 -0.1899912 0.2053374 0.24147825
AAT 0.014860544 0.11677543 0.18068868 0.14845474 -0.14325546 -0.08137712 0.2392759 0.31687275 -0.1209892 -0.10155793 -0.036741927 -0.48224673 0.34737796 0.28235286 -0.08388145 0.29991308 0.17127717 -0.038678903 -0.22975197 -0.4626783 0.116072685 0.21973859 0.2702274 -0.051076874 -0.046862174 0.23893465 -0.07837297 0.2914738 0.10626242 0.004231565 -0.028432347 -0.13850126 0.072371066 -0.07801552 -0.10725709 0.022789715 0.37429926 0.057232 -0.012897904 0.12841351 0.39380404 -0.12572931 -0.02713142 0.1779434 0.21596357 -0.37794757 -0.072710216 -0.18368076 0.20693956 0.19263238
TTG -0.06924821 0.1277815 0.09077665 0.19022827 -0.0422762 -0.112862006 0.2642112 0.28020158 -0.16712329 -0.1187181 -0.08131074 -0.4942767 0.30960009 0.23109809 -0.02809637 0.2851446 0.2561379 0.019769145 -0.23120022 -0.43565664 0.14525628 0.2395698 0.2977973 -0.09178681 0.0021182278 0.20632404 -0.1799594 0.2558688 0.013904462 0.017517637 0.037440542 -0.15837087 0.12896316 -0.07366071 -0.1356222 0.05241303 0.32446763 0.15567505 0.0014962654 0.09652911 0.3814461 -0.11445416 -0.055739686 0.16278756 0.1939377 -0.27698627 -0.0817932 -0.15231341 0.19097444 0.18674144
TGT -0.058027677 0.09449449 0.06515174 0.18068606 -0.056877997 -0.09049613 0.262463 0.29223362 -0.14400361 -0.16921765 -0.13315019 -0.51341206 0.34362298 0.28468403 -0.08137657 0.28512937 0.26949778 0.0680585 -0.23619615 -0.46194053 0.12597497 0.21183923 0.30822346 -0.04073389 -0.008339575 0.20363079 -0.19388 0.2808443 -0.035456594 0.07115237 0.011505078 -0.17356879 0.0908382 -0.119975306 -0.12960617 0.05738825 0.3146381 0.1462813 0.0024263 0.096146405 0.438593 -0.14238475 -0.04473698 0.20733494 0.2333169 -0.2780545 -0.07912392 -0.17239828 0.257236 0.18711486
AGG -0.11150865 0.14186953 -0.001014332 0.28448027 -0.021817084 -0.085564755 0.27600455 0.31202412 -0.16164115 -0.062303066 -0.087701075 -0.51682204 0.36540702 0.27775562 -0.061154686 0.2864693 0.38135573 -0.117404245 -0.166409 -0.46849754 0.18391854 0.17338769 0.29440513 -0.1638657 0.0070972187 0.14306404 -0.26981807 0.3796326 0.012772953 0.1343295 0.13448957 -0.1843456 0.1377114 -0.050314415 -0.22390264 0.12822767 0.30147406 0.30311763 -0.0006584078 0.19491197 0.48749483 -0.10849151 -0.10281003 0.16237728 0.19018991 -0.3039932 -0.04439471 -0.20559694 0.203917 0.27552113
CCA 0.13145164 0.24472019 0.19790076 0.28390595 -0.16473223 -0.1178772 0.326868 0.35404 -0.019413425 -0.14948104 -0.0025467887 -0.42934862 0.55182993 0.28041843 -0.15256844 0.3081527 0.22553013 -0.26629624 -0.28997186 -0.4746239 0.11372516 0.24559666 0.26422253 -0.06386316 -0.10202126 0.22127415 -0.08477252 0.34369528 0.20041966 0.04346157 0.008154173 -0.15586333 0.123268135 -0.097267985 -0.08372592 0.019324435 0.3816487 -0.03960718 -0.054580033 0.21376596 0.32784796 -0.043838486 0.05705873 0.20271991 0.32276347 -0.5481615 -0.10679575 -0.16157965 0.22611295 0.2843049
GAA -0.007297144 0.18620612 0.1201318 0.21419297 -0.1046451 -0.13851999 0.28700224 0.35264605 -0.15569006 -0.07373313 0.022469223 -0.5250572 0.43676126 0.26133505 -0.09648465 0.29220784 0.3513946 -0.17724292 -0.22548562 -0.5130977 0.14715372 0.18540515 0.33140123 -0.13122189 -0.08715728 0.1797214 -0.23520534 0.38027775 0.111558974 0.12097343 0.0830776 -0.20436741 0.20390585 -0.060572978 -0.15415265 0.10773995 0.39168763 0.18564229 -0.08960652 0.21094184 0.42522088 -0.10936499 -0.10381622 0.18593945 0.20757657 -0.39788574 -0.080687165 -0.23260526 0.08908367 0.25626618
TCA 0.024885897 0.10860942 0.119026005 0.16665983 -0.13263498 -0.12454481 0.23495574 0.3103408 -0.10594977 -0.1606503 -0.107292354 -0.5038771 0.39354175 0.28684723 -0.1224544 0.3095084 0.19513565 -0.052518502 -0.25134075 -0.46564743 0.10567445 0.2656964 0.23269051 -0.0042097694 -0.031004475 0.28004792 -0.08730976 0.2725071 0.074970335 0.041895505 -0.0062950873 -0.1219342 0.092544094 -0.07812511 -0.13756558 0.02175632 0.36224726 0.049420327 0.004694228 0.12067697 0.42128757 -0.12821972 -0.00213893 0.2018218 0.21359673 -0.41802886 -0.04063895 -0.17231217 0.24465531 0.19668265
CTC 0.12914346 0.19083515 0.17751041 0.26749724 -0.14672258 -0.0881024 0.32029662 0.34993792 -0.11230981 -0.15833426 -0.0024630036 -0.45544884 0.45923495 0.29034048 -0.08118016 0.29972774 0.26530612 -0.1659866 -0.29119548 -0.48625225 0.107083715 0.18171841 0.2980885 -0.07177671 -0.11250781 0.20812017 -0.13975692 0.38270608 0.15747397 0.05259205 -0.04660651 -0.1777395 0.107285336 -0.1520432 -0.11136964 0.039254848 0.35979152 -0.00273628 -0.08077999 0.10544234 0.36009204 -0.0897103 0.05236391 0.22406352 0.25983402 -0.46051943 -0.0720375 -0.19310917 0.17274028 0.28436258
TTA 0.019124381 0.07390209 0.12848094 0.1770134 -0.14259158 -0.09676035 0.24019493 0.3079325 -0.13780501 -0.15277573 -0.080613755 -0.4633765 0.31552255 0.26025972 -0.10118858 0.2924369 0.21067479 0.008735683 -0.25277665 -0.41477993 0.09356754 0.24628742 0.23599736 -0.015998967 0.0028474082 0.23679087 -0.12102258 0.27686673 0.032338075 0.031292792 -0.030028507 -0.100321695 0.029090647 -0.0952509 -0.09682182 0.035946935 0.307589 0.039794903 0.016907655 0.10183259 0.38020957 -0.13219282 -0.04723278 0.17353776 0.20185594 -0.34926 -0.09459529 -0.16642529 0.2042704 0.18777612
TGA 0.008638401 0.10613466 0.1388729 0.12822948 -0.08039365 -0.08705273 0.26013312 0.3679922 -0.086926326 -0.1568309 -0.1051131 -0.5266491 0.33584753 0.2640084 -0.106987044 0.26646474 0.28548965 -0.014592707 -0.21983804 -0.4660305 0.12143657 0.2196069 0.2749357 -0.05091654 -0.03322961 0.22974683 -0.18893583 0.31947765 0.052180238 0.07971124 -0.03531968 -0.15857485 0.10785512 -0.0929022 -0.15016207 0.0031724551 0.34255886 0.08868352 -0.008771054 0.11328749 0.41905224 -0.09611859 -0.02205906 0.1607104 0.1766339 -0.3726378 -0.027162958 -0.19249937 0.1748729 0.25352496
AGA 0.02824714 0.097022206 0.105612785 0.1460227 -0.086067796 -0.118365385 0.25657773 0.37119743 -0.0706222 -0.119115904 -0.14417677 -0.56012416 0.3589334 0.2863092 -0.11247855 0.27667361 0.2773105 -0.06750898 -0.21529377 -0.43891755 0.14735363 0.24433017 0.24773519 -0.0947167 -0.02063136 0.19946131 -0.14863417 0.25968096 0.038394984 0.0671553 -0.024209354 -0.1308059 0.07588501 -0.031468753 -0.16209215 0.043940004 0.3655081 0.14257859 0.0011635738 0.13706952 0.4537804 -0.14893654 -0.030904979 0.14440991 0.16541757 -0.36488473 -0.0111446725 -0.1577672 0.23304072 0.281814
GTG -0.21179588 0.14551982 -0.052280094 0.27203482 0.011951694 -0.0748766 0.26069745 0.23990192 -0.23435797 -0.057631318 -0.12525351 -0.5015284 0.27879924 0.26689816 0.017198551 0.29234508 0.4471581 0.026375903 -0.1541971 -0.49796155 0.23446938 0.15033884 0.38272458 -0.15353446 0.0362544 0.16828112 -0.35400188 0.34373745 -0.037858054 0.17277583 0.16377634 -0.202303 0.16117164 -0.12238559 -0.20580572 0.09639882 0.24878396 0.413497 0.033884227 0.15914698 0.5199848 -0.14202233 -0.11038664 0.20655906 0.19959472 -0.24684596 -0.08441356 -0.24378195 0.22100642 0.21910419
GAG -0.13553391 0.16244018 0.0059874123 0.26825124 -0.04795698 -0.054439478 0.3144274 0.29701364 -0.1842895 -0.02243567 -0.058988452 -0.49406633 0.35325962 0.29971203 -0.04920297 0.23885766 0.38312575 -0.043370616 -0.16404931 -0.4712835 0.1513719 0.14057578 0.30871966 -0.117830396 0.0036797128 0.17624529 -0.27308422 0.38321677 0.027173137 0.12328346 0.120857954 -0.22575219 0.16706192 -0.066417396 -0.18875968 0.12199754 0.33754882 0.31732666 0.008094416 0.15851155 0.51299036 -0.099967964 -0.12068426 0.17890823 0.17704831 -0.31225514 -0.031553533 -0.23765576 0.15017356 0.26186356
GGA -0.04019028 0.23629399 0.07743862 0.21113494 0.011269471 -0.087191805 0.34320053 0.3881098 -0.06835982 -0.077711254 -0.01466175 -0.5624835 0.34567973 0.24360429 -0.115657024 0.25974062 0.4259595 -0.1147842 -0.19167641 -0.49304342 0.20941666 0.16867909 0.33787438 -0.15549971 -0.09365307 0.14892244 -0.2959144 0.37005436 0.08128212 0.12668556 0.06949939 -0.21694772 0.1898835 -0.115920365 -0.19309565 0.048476595 0.37537384 0.29917789 0.0030439391 0.23887448 0.4901368 -0.115016475 -0.075671524 0.17841478 0.21398228 -0.33022583 -0.0480942 -0.2526005 0.12795629 0.2890525
ATC 0.07772015 0.15471083 0.1705409 0.1480183 -0.13737877 -0.14266342 0.31341 0.34475216 -0.097465955 -0.13964866 -0.060257908 -0.47678256 0.4242944 0.26886585 -0.07381399 0.3096185 0.22186819 -0.102732025 -0.24474351 -0.47709116 0.11302557 0.19148536 0.28902707 -0.08020908 -0.08123699 0.19762906 -0.09695051 0.33770755 0.108886994 0.028671274 -0.043434054 -0.1358464 0.12520614 -0.12137244 -0.09947737 0.03092385 0.41030458 0.049798284 -0.079139456 0.10690793 0.38742456 -0.094096735 0.029173493 0.1853879 0.254523 -0.42936817 -0.06853334 -0.15005185 0.1651492 0.2694267
GAT -0.08658015 0.1513859 0.115536794 0.19305018 -0.07785437 -0.14802863 0.22727999 0.3155148 -0.18706103 -0.057525758 -0.0651562 -0.55154425 0.28702676 0.2757086 -0.07984595 0.26518086 0.26930717 0.004409397 -0.20619734 -0.4722194 0.12667786 0.250434 0.28212258 -0.09844662 -0.05832239 0.21626326 -0.18580142 0.34988797 0.06059535 0.01287882 0.027928637 -0.20101124 0.16202883 -0.04634349 -0.17516218 0.077075616 0.40508547 0.13660072 -0.05701265 0.19638418 0.4661765 -0.12896885 -0.11285077 0.19407092 0.21850204 -0.27244833 -0.11080588 -0.22961606 0.18015024 0.17744194
AAG -0.068036474 0.10401638 0.10517111 0.20728005 -0.10862194 -0.0617231 0.2862862 0.32096797 -0.121040426 -0.079987004 -0.10236285 -0.5231972 0.313557 0.2773876 -0.061285913 0.25290334 0.24547963 -0.0040674116 -0.18257974 -0.4379585 0.101768896 0.19344175 0.28806564 -0.08042313 0.020289754 0.2358692 -0.17154802 0.29729298 0.043502603 0.06397484 0.027783241 -0.17720214 0.07317558 -0.058025647 -0.1667915 0.06531268 0.32303375 0.1574573 0.049140707 0.14308833 0.45215043 -0.12647907 -0.08365299 0.15129054 0.15333746 -0.334938 -0.018691309 -0.1716192 0.23034707 0.24001026
TAA 0.06472673 0.06252254 0.16491495 0.15880999 -0.14694275 -0.09561932 0.23722501 0.34444016 -0.112969115 -0.16431071 -0.09307475 -0.5171726 0.32291782 0.29384646 -0.13162866 0.31205848 0.15105876 -0.04065339 -0.23061535 -0.44541106 0.12531513 0.25705305 0.22554962 -0.011859255 -0.015913557 0.2588191 -0.06929918 0.21682818 0.06371226 0.046793006 -0.026086882 -0.15129244 0.03700417 -0.104914606 -0.101812616 0.03983038 0.3433669 0.012248105 -0.031087266 0.06027788 0.384249 -0.15289107 -0.03401536 0.18732657 0.17224535 -0.36185488 -0.07665011 -0.18577062 0.2325755 0.20931633
TAT 0.034102075 0.08164678 0.15304129 0.18009284 -0.13314576 -0.08595622 0.23612934 0.2957199 -0.14204293 -0.1585863 -0.08249334 -0.4816125 0.3506754 0.28995252 -0.09742237 0.3035651 0.17205197 -0.008602545 -0.20852637 -0.4282196 0.13488427 0.251089 0.23793094 -0.0306084 -0.020850321 0.22116761 -0.0717263 0.25171795 0.095012076 0.0205293 -0.035074793 -0.15801321 0.027753552 -0.11959957 -0.12612005 0.027472802 0.33004037 0.019537358 -0.027944868 0.08030055 0.41823924 -0.124603756 0.020188538 0.19861652 0.18175308 -0.34970212 -0.09735725 -0.1768962 0.21782641 0.21091542
AGT -0.039499376 0.1018557 0.08798667 0.15030313 -0.06846012 -0.13581344 0.26379418 0.30969325 -0.16714966 -0.16167983 -0.14072064 -0.53321964 0.3497499 0.27547556 -0.04540103 0.26775235 0.26593795 0.012684173 -0.17819168 -0.49349576 0.1640838 0.21060465 0.26196328 -0.086941935 -0.0035431602 0.20275407 -0.16557634 0.270251 0.013951809 0.06687418 0.015979128 -0.13520159 0.06999389 -0.09355689 -0.1319393 0.07658084 0.31387612 0.1808157 0.0068762433 0.1185745 0.48555183 -0.17567502 -0.035841428 0.19057377 0.21210627 -0.32642853 -0.06769356 -0.17240441 0.24731192 0.21659563
CAT 0.09311026 0.15012352 0.1880798 0.16669422 -0.14592098 -0.09483659 0.27504352 0.3370321 -0.10915582 -0.17428862 -0.08149574 -0.49995968 0.36859238 0.29479438 -0.08981664 0.31785157 0.19980487 -0.04674309 -0.23189332 -0.4581524 0.1175964 0.2391239 0.25522178 0.01995397 -0.030409858 0.27543798 -0.050181005 0.31402445 0.12995555 0.04816888 -0.09364119 -0.13266318 0.07700133 -0.12670626 -0.083466366 0.052997477 0.40185016 -0.0095973015 -0.022912899 0.096468434 0.42878127 -0.109571025 0.029089661 0.19264275 0.22958015 -0.38784617 -0.101125434 -0.16589189 0.23134676 0.19829635
ATG 0.0092680575 0.09412543 0.058207948 0.21038862 -0.07726593 -0.072459064 0.28801683 0.3438439 -0.13243838 -0.12646551 -0.1199795 -0.48150572 0.36252582 0.31300107 -0.06409544 0.27597925 0.25389493 0.0040426184 -0.17337784 -0.4214283 0.15591712 0.17261963 0.25621292 -0.07012957 0.0128864 0.1864691 -0.18733619 0.30420384 0.053910263 0.06835717 0.019843215 -0.16037545 0.07188184 -0.09035953 -0.13681343 0.06913837 0.33277717 0.1641711 0.035943005 0.059917565 0.42106962 -0.14857104 -0.01623281 0.21680433 0.17394492 -0.33633602 -0.07131164 -0.1912179 0.23001137 0.20821367
TGC 0.007061175 0.12789986 0.10307451 0.26944724 -0.122262 -0.01749022 0.29857096 0.32737136 -0.08874816 -0.1363643 -0.061244786 -0.46125093 0.45055923 0.3433311 -0.11635355 0.32180077 0.29207075 -0.027737707 -0.24444778 -0.43834448 0.15135258 0.20338286 0.29763424 -0.029574731 0.013573625 0.20800817 -0.16708975 0.3548293 0.03815549 0.06521063 -0.044686858 -0.19243516 0.07689526 -0.094184764 -0.13136879 0.07133333 0.3322305 0.11329117 -0.025447857 0.07476516 0.4556803 -0.12444561 -0.0014927296 0.23484956 0.23188756 -0.37613136 -0.0765147 -0.20822822 0.22520903 0.24118717
GCT -0.011265152 0.14931528 0.045669902 0.30466336 -0.11345434 -0.018904565 0.33734605 0.2587902 -0.13355319 -0.12226168 -0.052481357 -0.4955979 0.41899785 0.31148568 -0.072866395 0.30860296 0.35573825 -0.07298641 -0.24392301 -0.44251266 0.17122748 0.21474813 0.2721777 -0.099133514 -0.064018294 0.2157669 -0.22340995 0.33942127 0.04546425 0.16534708 0.0031206515 -0.20670629 0.09844071 -0.14018808 -0.22095534 0.14874782 0.27979833 0.20109138 -0.01901162 0.10684496 0.45716304 -0.06848964 -0.043396223 0.25075135 0.22381836 -0.31824842 -0.09380349 -0.27015945 0.21233574 0.23401304
CAC 0.14216875 0.19766183 0.1970309 0.21738234 -0.18154697 -0.03767022 0.37421834 0.38502374 -0.0076391925 -0.20537356 0.003283916 -0.52537984 0.5254448 0.27981856 -0.14887048 0.35054693 0.19032846 -0.2529588 -0.3475032 -0.4626221 0.08138801 0.26438612 0.29202783 0.0027664155 -0.12093907 0.3024044 -0.043733798 0.3998778 0.1704764 0.030136669 -0.10984026 -0.17261161 0.0775423 -0.15785542 -0.052655023 0.04041292 0.4169187 -0.09802567 -0.09302521 0.08373948 0.3728548 -0.11347916 0.021523317 0.23909812 0.21095681 -0.5901413 -0.12011758 -0.13008168 0.23552597 0.29515982
GGC -0.08546108 0.24265079 0.0033175137 0.42789048 -0.016814493 0.0139481425 0.36721343 0.2816424 -0.10606166 -0.018487716 0.022392884 -0.45010704 0.43984523 0.33037633 -0.07681214 0.24919362 0.42076832 -0.10084829 -0.2138896 -0.44857514 0.21481968 0.122696735 0.33321464 -0.11801539 -0.036096163 0.08131348 -0.2855271 0.42514116 0.015754772 0.157497 0.0989597 -0.24759375 0.16328558 -0.121183045 -0.22532235 0.15356803 0.27666777 0.3595446 -0.0078778155 0.20309566 0.4837629 -0.105673224 -0.09371998 0.24628077 0.26344714 -0.33464748 -0.11870589 -0.28384528 0.15512547 0.27052104
GCC 0.014053662 0.20774664 0.052129183 0.39490643 -0.11646743 0.030184856 0.41692683 0.26363042 -0.12816894 -0.045690715 0.048421156 -0.43051374 0.5572637 0.29214483 -0.15413117 0.28782904 0.41859403 -0.24474025 -0.22745492 -0.44658017 0.2148526 0.13651372 0.32158285 -0.1361327 -0.07996883 0.16393258 -0.2755423 0.48301843 0.11058301 0.18371207 0.044622947 -0.23547316 0.1733037 -0.15440078 -0.25068328 0.20360811 0.3084903 0.23867485 -0.068725266 0.1952466 0.42616796 -0.030868497 -0.007681455 0.23190221 0.29639316 -0.39834732 -0.047711603 -0.29248154 0.070771776 0.2811721
ACC 0.12696545 0.31584916 0.26840243 0.32047603 -0.2326597 -0.036845807 0.34714487 0.41657734 -0.067616306 -0.08272023 0.09842725 -0.43975133 0.59591365 0.28249067 -0.19073132 0.2631994 0.34232566 -0.3140258 -0.3004495 -0.42662865 0.08948123 0.15246722 0.25921673 -0.023368454 -0.10284895 0.24574366 -0.20500864 0.4433975 0.27099988 0.10743381 0.051068828 -0.24438085 0.17731062 -0.17287725 -0.10834905 0.033300016 0.4109269 -0.049014583 -0.09887958 0.19164546 0.3650345 -0.06685232 0.032714322 0.1273008 0.2070989 -0.58797157 -0.018001772 -0.23636201 0.024368472 0.26578513
CAA 0.08038113 0.1361034 0.13246804 0.15726608 -0.19019145 -0.13531762 0.25310963 0.32323545 -0.13601764 -0.19271763 -0.0583556 -0.46183982 0.36382124 0.28738442 -0.092015155 0.30596146 0.23169072 -0.07678743 -0.25410154 -0.43921226 0.10973122 0.24100672 0.24573347 -0.01491029 -0.040437743 0.23517714 -0.08462006 0.3202143 0.12644875 0.073595725 -0.056968585 -0.16266006 0.0967721 -0.11449245 -0.11128962 0.042168718 0.38893092 0.014936109 -0.07382295 0.11912169 0.41761127 -0.13175094 -0.0026409512 0.16003485 0.18825795 -0.41899496 -0.088174045 -0.13172112 0.16875954 0.2308456
ACT 0.082569666 0.17473316 0.1992565 0.2278831 -0.1954894 -0.11378833 0.27999854 0.35541514 -0.11785291 -0.20655905 -0.057043888 -0.49450505 0.43946397 0.29582766 -0.081484385 0.32645652 0.21538077 -0.066176556 -0.25323105 -0.43138263 0.101554 0.2639453 0.20854834 0.015197814 -0.033211134 0.29068083 -0.122163735 0.32496142 0.1417279 0.040084563 -0.06456128 -0.15324649 0.060899142 -0.14531837 -0.09591846 0.05231473 0.40186587 -0.04123894 -0.067605816 0.12535243 0.41024134 -0.10909418 -0.008428789 0.15898219 0.20847599 -0.44154713 -0.0811112 -0.16894218 0.20195366 0.20260304
GCA 0.07400111 0.11575534 0.07427525 0.28512296 -0.14995874 -0.026345827 0.31804368 0.30715337 -0.0901763 -0.14141424 -0.10986883 -0.49098772 0.45327798 0.34533828 -0.10715587 0.30551484 0.2349693 -0.100480735 -0.24291322 -0.43059403 0.124822065 0.2327627 0.23886023 -0.07263095 -0.06918844 0.23058517 -0.15174933 0.3232445 0.09829044 0.11868325 -0.06171401 -0.15669046 0.09189116 -0.11256122 -0.17254502 0.12187008 0.34530008 0.106645055 0.028640557 0.10556815 0.44725126 -0.08768077 -0.016461216 0.25066522 0.23940614 -0.4242306 -0.05611143 -0.22795495 0.22405398 0.2743743
GTC -0.073677614 0.1180499 0.06858981 0.22317821 -0.105214655 -0.10194045 0.26447994 0.27019548 -0.16803177 -0.11997353 -0.08407315 -0.4930751 0.3456702 0.2864195 -0.014960042 0.3120317 0.33849207 -0.05630949 -0.1896122 -0.48339704 0.19641046 0.19863692 0.32537866 -0.13407186 -0.05454523 0.2133845 -0.21487437 0.35555717 0.04636189 0.09749131 0.080797136 -0.18586358 0.099733 -0.13926649 -0.17790309 0.04648949 0.3423378 0.2342307 -0.052211415 0.17256494 0.47986493 -0.08121948 -0.042696565 0.17709078 0.24115174 -0.34474254 -0.10060962 -0.21973452 0.20534575 0.25156522
AGC 0.008126827 0.17607166 0.100042604 0.339199 -0.14951059 -0.022250373 0.3473931 0.3524515 -0.09188181 -0.09574717 -0.050087407 -0.5032725 0.44203687 0.36337832 -0.11186083 0.29845974 0.31080806 -0.13160433 -0.19636527 -0.42460042 0.16324125 0.20219706 0.26440826 -0.081594296 0.015395895 0.15924364 -0.17256255 0.3679419 0.064938806 0.11093197 -0.004574431 -0.19085285 0.100231044 -0.07143361 -0.19240564 0.11662422 0.3120694 0.21350549 -0.043411974 0.16126327 0.48267555 -0.13634434 -0.04652464 0.17681591 0.21452193 -0.37251318 -0.057741936 -0.21778053 0.19082706 0.2949067
ACA 0.09825232 0.15824752 0.21135987 0.20404682 -0.24325821 -0.1166265 0.31065068 0.40577072 -0.09638826 -0.20418341 -0.07928394 -0.47879532 0.4578054 0.32080632 -0.14992413 0.311848 0.18056029 -0.08379469 -0.28801653 -0.46586677 0.06051418 0.2553543 0.18756339 0.021946201 -0.055373777 0.2621202 -0.06459898 0.2748031 0.15578409 0.029416552 -0.037484355 -0.12986001 0.049708556 -0.096586 -0.081410065 0.0151246395 0.41986167 -0.0927607 0.01350051 0.1154766 0.40445545 -0.12116261 0.046794176 0.17757696 0.23481269 -0.51671416 -0.039763767 -0.17914574 0.24394885 0.22441524
AAC 0.10204439 0.25191513 0.20318928 0.2600903 -0.097867794 -0.024918089 0.39313322 0.40892246 0.002369658 -0.03329091 0.06848218 -0.5338168 0.4780232 0.27289632 -0.16296656 0.27897182 0.2071901 -0.30913273 -0.28286308 -0.4239979 0.09458425 0.19764654 0.3166156 -0.08202753 -0.096379906 0.23462558 -0.13674194 0.39933568 0.16060397 0.057564292 0.04637802 -0.18236724 0.09787473 -0.05362173 -0.10518375 0.061463468 0.37199807 0.064794786 -0.02039554 0.21000385 0.36229715 -0.13450454 -0.037851226 0.1857544 0.21290693 -0.5273965 -0.028836783 -0.23081052 0.18230622 0.25080064
ATA 0.081657074 0.10989663 0.14117931 0.14492428 -0.15017636 -0.08663011 0.22169572 0.34449837 -0.093271405 -0.14627214 -0.1065895 -0.44544566 0.33827937 0.27890465 -0.12303872 0.28424928 0.17277631 -0.02051996 -0.23894733 -0.42302963 0.07513993 0.21889588 0.18449736 -0.015747575 -0.010825628 0.23271881 -0.10119769 0.24045716 0.074274644 0.053297367 -0.033990335 -0.1254207 0.008308748 -0.10486586 -0.09317194 0.04619521 0.3532272 0.00943913 0.0012960318 0.04973996 0.35727888 -0.13899177 -0.0011243869 0.16728769 0.1476145 -0.4002137 -0.069047056 -0.17437255 0.21396168 0.1875737
TCG -0.10557386 0.22647914 -0.035266608 0.28394186 -0.030876257 -0.10665956 0.27609974 0.26299477 -0.21458729 0.0009650552 0.08080233 -0.5300689 0.42623213 0.32553127 0.00505514 0.32288358 0.5284231 -0.18681554 -0.30113283 -0.51105225 0.16715804 0.10213787 0.33818686 -0.13198628 -0.045595236 0.09342752 -0.35733157 0.49155074 0.07555899 0.18327962 0.21278043 -0.1490857 0.23072875 -0.1292752 -0.25606376 0.13353819 0.36457732 0.4151705 -0.09048009 0.28148305 0.39997718 -0.06352985 -0.055922404 0.107286364 0.28858563 -0.362144 -0.14915577 -0.222435 0.038012188 0.27716857
CGG -0.23002017 0.27213994 -0.076769926 0.50322926 0.10072217 0.040661175 0.47753748 0.22483397 -0.2249753 0.19569388 0.09790187 -0.41811892 0.54833627 0.24759881 -0.15978816 0.18607889 0.58105826 -0.28700995 -0.17418806 -0.53271604 0.3192679 0.030534206 0.48894608 -0.3306197 -0.12864418 -0.040754765 -0.46712053 0.57672155 0.03794587 0.2729777 0.24902816 -0.25895965 0.3052093 -0.03727941 -0.32621613 0.24777913 0.20747383 0.47441965 -0.029962244 0.30653295 0.50694734 -0.06161104 -0.10335541 0.16098341 0.3296501 -0.27101374 -0.03195046 -0.3659191 0.029214285 0.24636547
TAG -0.041767094 0.104529336 0.055541176 0.22305962 -0.10660389 -0.054018598 0.27844068 0.2959869 -0.17981057 -0.14128897 -0.10991701 -0.5292947 0.31937832 0.2921195 -0.088573776 0.28004 0.2744391 -0.0055978736 -0.21068147 -0.44643605 0.14848983 0.17973816 0.26267147 -0.065820225 -0.0008993417 0.16631417 -0.15339597 0.29630807 0.020269014 0.11268238 0.031666588 -0.14209127 0.061972894 -0.089225166 -0.16119058 0.061882563 0.2985886 0.21446706 0.028784612 0.1092262 0.47988507 -0.14570378 -0.05370646 0.16990471 0.1653191 -0.33771724 -0.057857536 -0.19091018 0.22835071 0.23166847
GAC 0.02349329 0.22192498 0.122957446 0.29731986 -0.050496005 -0.06289288 0.36821106 0.3391709 -0.051752046 -0.07404263 0.009019433 -0.55819166 0.45464668 0.2837017 -0.1489165 0.26070395 0.3210134 -0.22409996 -0.26899582 -0.42953473 0.10795028 0.2343942 0.3108056 -0.09424846 -0.09442666 0.19974342 -0.21867242 0.39012712 0.08036959 0.06875324 0.05329748 -0.22338687 0.10421478 -0.101477675 -0.16132502 0.06350049 0.355614 0.14673667 -0.021802228 0.15512621 0.39180303 -0.12933159 -0.08950583 0.20298994 0.18217473 -0.42567316 -0.09065125 -0.20531113 0.1960467 0.2872881
CGA -0.05909405 0.22441812 0.13112922 0.28250608 -0.021383997 -0.06016307 0.43426168 0.298864 -0.1517441 0.051283427 0.07109236 -0.4922138 0.5386617 0.20268713 -0.15482187 0.23745057 0.40054744 -0.2665187 -0.23059827 -0.5450257 0.229546 0.13990621 0.44295287 -0.24450809 -0.1624729 0.08578378 -0.33592185 0.47619918 0.13970661 0.10311513 0.0992836 -0.21997227 0.29874223 -0.07813454 -0.17808965 0.06795942 0.33283177 0.2075588 -0.06700214 0.27513564 0.44672197 -0.070666656 0.0037945856 0.10752155 0.3390821 -0.3946075 -0.037367035 -0.2473387 0.0081822565 0.246308
CCG -0.027841952 0.35230044 -0.062479448 0.4790547 -0.03654484 0.0113058165 0.44836366 0.2697701 -0.072521016 0.0781272 0.15206096 -0.43830281 0.54910225 0.35888425 -0.08146989 0.2973666 0.5822428 -0.33828822 -0.24621584 -0.45581976 0.276298 0.05576878 0.40192714 -0.14957416 -0.099830635 -0.021084646 -0.37158346 0.54827976 0.12705065 0.25519505 0.22404747 -0.18601942 0.2908429 -0.19421484 -0.2744898 0.2382228 0.30601716 0.4298842 -0.11540765 0.33306563 0.36745816 0.042627428 -0.040442802 0.14373742 0.36627173 -0.34125587 -0.15997274 -0.3239424 0.009225558 0.34871295
GTA -0.041611876 0.10381595 0.06724736 0.20461336 -0.11080999 -0.0931475 0.2524554 0.3177692 -0.15643199 -0.12467306 -0.09655166 -0.52275723 0.33490166 0.30709213 -0.09543319 0.2716565 0.25112507 -0.031088931 -0.19619326 -0.4412887 0.14403574 0.19902377 0.2729756 -0.043505803 -0.0040255766 0.20174 -0.18134235 0.2993382 0.019110125 0.09570481 0.014144004 -0.17228228 0.036432687 -0.09656012 -0.16813803 0.047101364 0.33850956 0.14949068 0.0010455091 0.09941972 0.44120595 -0.11344506 -0.06143155 0.18217252 0.1811211 -0.36075807 -0.10305095 -0.22554484 0.24564812 0.24154048
CTA 0.07102757 0.09326067 0.15296036 0.18364345 -0.122757256 -0.077474356 0.24558498 0.34144786 -0.12536642 -0.14533 -0.074000835 -0.4819379 0.38303804 0.30641526 -0.100989476 0.27289104 0.2249643 -0.097282834 -0.26340976 -0.45596817 0.08128554 0.21243411 0.2342751 -0.016767096 -0.014837777 0.24496877 -0.12251891 0.30593342 0.09610778 0.04628817 -0.04542533 -0.12705663 0.019005872 -0.11111631 -0.07973568 0.019227194 0.3387452 -0.009376 0.0002484239 0.10290889 0.34727108 -0.1364137 0.0135098165 0.19516352 0.18490198 -0.40494782 -0.09399694 -0.16236801 0.20135742 0.20776685
GCG -0.06890992 0.25802475 -0.12945686 0.53814024 -0.075332105 0.05085714 0.48892972 0.29091027 -0.091052756 0.056892306 0.04431599 -0.54829776 0.52749705 0.44062382 -0.0961198 0.28187013 0.52618176 -0.24241301 -0.24168515 -0.43142 0.27067542 0.12467963 0.32822764 -0.19300535 -0.09620882 0.008933863 -0.39199334 0.5202818 0.066968866 0.3276561 0.10920683 -0.22752544 0.15810838 -0.15589416 -0.3480521 0.3167004 0.23203452 0.5214392 0.023859283 0.24331944 0.50304604 0.025412152 -0.07345686 0.27708367 0.30067855 -0.30715933 -0.09132229 -0.4048424 0.060658775 0.34015444
TAC 0.07774921 0.14080338 0.16006994 0.2239281 -0.15199709 -0.07031179 0.30721292 0.34503013 -0.069461524 -0.15511465 -0.054622885 -0.5236659 0.4095289 0.27132386 -0.12686545 0.28043735 0.1947578 -0.11453615 -0.2428277 -0.45001107 0.13343546 0.21465063 0.23411474 -0.0177519 -0.05382551 0.24243611 -0.098021075 0.2998466 0.08347697 0.021048129 -0.02569254 -0.14697795 0.06762487 -0.13510494 -0.10387953 0.015717728 0.37391087 0.037067488 -0.041286647 0.110360324 0.37383327 -0.14562598 0.005599627 0.20647423 0.17877221 -0.44517887 -0.06394191 -0.17017241 0.22928877 0.24311037
CGC -0.10392173 0.24096769 0.027488846 0.5823994 -0.093789086 0.104449555 0.5165539 0.23082153 -0.1521192 0.10515898 0.10215374 -0.45098352 0.6261147 0.3647564 -0.18991098 0.2300988 0.43587822 -0.21695529 -0.19335665 -0.49585816 0.25592908 0.09173118 0.43850577 -0.20263705 -0.030456694 0.03916992 -0.36549562 0.54161346 0.06482496 0.20921758 0.048004154 -0.26101208 0.16785702 -0.06359176 -0.3050827 0.2097675 0.22017978 0.33442083 0.005866591 0.17747489 0.51575637 -0.08507813 -0.008453211 0.23171864 0.3541151 -0.34495637 -0.10146461 -0.334154 0.066458724 0.25489545
CGT -0.12675154 0.16080056 0.03525325 0.3938469 -0.030342538 -0.023295466 0.39593807 0.22595413 -0.16663201 -0.010671165 0.006984987 -0.4976723 0.5164069 0.31102028 -0.110090025 0.25207686 0.42288503 -0.11928394 -0.19042304 -0.51473016 0.24359709 0.13871334 0.41805822 -0.20175637 -0.037279114 0.10528485 -0.34140348 0.47195745 0.014334571 0.19262147 0.09273568 -0.19901988 0.18863907 -0.12758854 -0.23633376 0.18442374 0.26633692 0.29841658 -0.009746531 0.18402912 0.5071127 -0.13052608 -0.032680843 0.22673802 0.3353197 -0.30083194 -0.09314615 -0.2743488 0.13820423 0.20890598
ACG 0.048434727 0.30285615 0.13330731 0.38159183 -0.18818659 -0.027912296 0.39421803 0.4301248 -0.1131411 -0.051143747 0.042622495 -0.54554015 0.5769318 0.3881344 -0.104318805 0.31318095 0.41269815 -0.24662189 -0.2782932 -0.50744873 0.17064029 0.18409678 0.31860593 -0.07169468 -0.047308262 0.18323852 -0.2748816 0.46760747 0.18786047 0.19528793 0.090327255 -0.22840384 0.15523572 -0.16648203 -0.21365379 0.14909036 0.3835555 0.17272703 -0.026394786 0.24540342 0.49913192 -0.06730704 -0.027589176 0.18541752 0.2965537 -0.5359134 -0.11162219 -0.28667822 0.118545756 0.2904641
